digraph Tree {
node [shape=box] ;
0 [label="X[24] <= 0.182\nentropy = 1.0\nsamples = 1000\nvalue = [502, 498]"] ;
1 [label="X[27] <= -0.139\nentropy = 0.704\nsamples = 591\nvalue = [113, 478]"] ;
0 -> 1 [labeldistance=2.5, labelangle=45, headlabel="True"] ;
2 [label="X[24] <= -0.468\nentropy = 0.576\nsamples = 512\nvalue = [70, 442]"] ;
1 -> 2 ;
3 [label="X[10] <= 1.087\nentropy = 0.467\nsamples = 402\nvalue = [40, 362]"] ;
2 -> 3 ;
4 [label="X[28] <= 0.141\nentropy = 0.518\nsamples = 345\nvalue = [40, 305]"] ;
3 -> 4 ;
5 [label="X[2] <= -2.323\nentropy = 0.365\nsamples = 201\nvalue = [14, 187]"] ;
4 -> 5 ;
6 [label="entropy = 0.0\nsamples = 2\nvalue = [2, 0]"] ;
5 -> 6 ;
7 [label="X[10] <= 1.031\nentropy = 0.329\nsamples = 199\nvalue = [12, 187]"] ;
5 -> 7 ;
8 [label="X[27] <= -2.473\nentropy = 0.273\nsamples = 192\nvalue = [9, 183]"] ;
7 -> 8 ;
9 [label="entropy = 0.918\nsamples = 9\nvalue = [3, 6]"] ;
8 -> 9 ;
10 [label="entropy = 0.208\nsamples = 183\nvalue = [6, 177]"] ;
8 -> 10 ;
11 [label="X[39] <= -0.053\nentropy = 0.985\nsamples = 7\nvalue = [3, 4]"] ;
7 -> 11 ;
12 [label="entropy = 0.0\nsamples = 3\nvalue = [0, 3]"] ;
11 -> 12 ;
13 [label="entropy = 0.811\nsamples = 4\nvalue = [3, 1]"] ;
11 -> 13 ;
14 [label="X[0] <= 0.468\nentropy = 0.681\nsamples = 144\nvalue = [26, 118]"] ;
4 -> 14 ;
15 [label="X[1] <= -2.091\nentropy = 0.443\nsamples = 98\nvalue = [9, 89]"] ;
14 -> 15 ;
16 [label="entropy = 0.0\nsamples = 2\nvalue = [2, 0]"] ;
15 -> 16 ;
17 [label="X[7] <= -1.864\nentropy = 0.377\nsamples = 96\nvalue = [7, 89]"] ;
15 -> 17 ;
18 [label="entropy = 0.971\nsamples = 5\nvalue = [3, 2]"] ;
17 -> 18 ;
19 [label="entropy = 0.26\nsamples = 91\nvalue = [4, 87]"] ;
17 -> 19 ;
20 [label="X[3] <= 0.486\nentropy = 0.95\nsamples = 46\nvalue = [17, 29]"] ;
14 -> 20 ;
21 [label="X[0] <= 0.487\nentropy = 0.696\nsamples = 32\nvalue = [6, 26]"] ;
20 -> 21 ;
22 [label="entropy = 0.0\nsamples = 3\nvalue = [3, 0]"] ;
21 -> 22 ;
23 [label="entropy = 0.48\nsamples = 29\nvalue = [3, 26]"] ;
21 -> 23 ;
24 [label="X[21] <= 0.953\nentropy = 0.75\nsamples = 14\nvalue = [11, 3]"] ;
20 -> 24 ;
25 [label="entropy = 0.414\nsamples = 12\nvalue = [11, 1]"] ;
24 -> 25 ;
26 [label="entropy = 0.0\nsamples = 2\nvalue = [0, 2]"] ;
24 -> 26 ;
27 [label="entropy = 0.0\nsamples = 57\nvalue = [0, 57]"] ;
3 -> 27 ;
28 [label="X[20] <= -1.09\nentropy = 0.845\nsamples = 110\nvalue = [30, 80]"] ;
2 -> 28 ;
29 [label="entropy = 0.0\nsamples = 18\nvalue = [0, 18]"] ;
28 -> 29 ;
30 [label="X[34] <= 1.263\nentropy = 0.911\nsamples = 92\nvalue = [30, 62]"] ;
28 -> 30 ;
31 [label="X[17] <= -1.103\nentropy = 0.965\nsamples = 77\nvalue = [30, 47]"] ;
30 -> 31 ;
32 [label="X[8] <= -1.961\nentropy = 0.337\nsamples = 16\nvalue = [1, 15]"] ;
31 -> 32 ;
33 [label="entropy = 0.0\nsamples = 1\nvalue = [1, 0]"] ;
32 -> 33 ;
34 [label="entropy = 0.0\nsamples = 15\nvalue = [0, 15]"] ;
32 -> 34 ;
35 [label="X[7] <= -0.436\nentropy = 0.998\nsamples = 61\nvalue = [29, 32]"] ;
31 -> 35 ;
36 [label="X[35] <= 0.83\nentropy = 0.592\nsamples = 21\nvalue = [3, 18]"] ;
35 -> 36 ;
37 [label="entropy = 0.297\nsamples = 19\nvalue = [1, 18]"] ;
36 -> 37 ;
38 [label="entropy = 0.0\nsamples = 2\nvalue = [2, 0]"] ;
36 -> 38 ;
39 [label="X[38] <= -0.548\nentropy = 0.934\nsamples = 40\nvalue = [26, 14]"] ;
35 -> 39 ;
40 [label="entropy = 0.918\nsamples = 15\nvalue = [5, 10]"] ;
39 -> 40 ;
41 [label="entropy = 0.634\nsamples = 25\nvalue = [21, 4]"] ;
39 -> 41 ;
42 [label="entropy = 0.0\nsamples = 15\nvalue = [0, 15]"] ;
30 -> 42 ;
43 [label="X[15] <= -0.455\nentropy = 0.994\nsamples = 79\nvalue = [43, 36]"] ;
1 -> 43 ;
44 [label="X[38] <= -0.981\nentropy = 0.924\nsamples = 53\nvalue = [18, 35]"] ;
43 -> 44 ;
45 [label="X[24] <= -0.791\nentropy = 0.934\nsamples = 20\nvalue = [13, 7]"] ;
44 -> 45 ;
46 [label="X[34] <= -1.854\nentropy = 0.544\nsamples = 8\nvalue = [1, 7]"] ;
45 -> 46 ;
47 [label="entropy = 0.0\nsamples = 1\nvalue = [1, 0]"] ;
46 -> 47 ;
48 [label="entropy = 0.0\nsamples = 7\nvalue = [0, 7]"] ;
46 -> 48 ;
49 [label="entropy = 0.0\nsamples = 12\nvalue = [12, 0]"] ;
45 -> 49 ;
50 [label="X[17] <= 0.012\nentropy = 0.614\nsamples = 33\nvalue = [5, 28]"] ;
44 -> 50 ;
51 [label="X[7] <= -1.085\nentropy = 0.94\nsamples = 14\nvalue = [5, 9]"] ;
50 -> 51 ;
52 [label="entropy = 0.0\nsamples = 3\nvalue = [3, 0]"] ;
51 -> 52 ;
53 [label="X[13] <= -0.48\nentropy = 0.684\nsamples = 11\nvalue = [2, 9]"] ;
51 -> 53 ;
54 [label="entropy = 0.0\nsamples = 8\nvalue = [0, 8]"] ;
53 -> 54 ;
55 [label="X[27] <= 0.729\nentropy = 0.918\nsamples = 3\nvalue = [2, 1]"] ;
53 -> 55 ;
56 [label="entropy = 0.0\nsamples = 2\nvalue = [2, 0]"] ;
55 -> 56 ;
57 [label="entropy = 0.0\nsamples = 1\nvalue = [0, 1]"] ;
55 -> 57 ;
58 [label="entropy = 0.0\nsamples = 19\nvalue = [0, 19]"] ;
50 -> 58 ;
59 [label="X[19] <= -1.456\nentropy = 0.235\nsamples = 26\nvalue = [25, 1]"] ;
43 -> 59 ;
60 [label="entropy = 0.0\nsamples = 1\nvalue = [0, 1]"] ;
59 -> 60 ;
61 [label="entropy = 0.0\nsamples = 25\nvalue = [25, 0]"] ;
59 -> 61 ;
62 [label="X[24] <= 1.039\nentropy = 0.282\nsamples = 409\nvalue = [389, 20]"] ;
0 -> 62 [labeldistance=2.5, labelangle=-45, headlabel="False"] ;
63 [label="X[38] <= -0.126\nentropy = 0.534\nsamples = 156\nvalue = [137, 19]"] ;
62 -> 63 ;
64 [label="X[38] <= -0.491\nentropy = 0.769\nsamples = 80\nvalue = [62, 18]"] ;
63 -> 64 ;
65 [label="X[25] <= -1.969\nentropy = 0.235\nsamples = 52\nvalue = [50, 2]"] ;
64 -> 65 ;
66 [label="X[31] <= 0.464\nentropy = 0.918\nsamples = 3\nvalue = [1, 2]"] ;
65 -> 66 ;
67 [label="entropy = 0.0\nsamples = 2\nvalue = [0, 2]"] ;
66 -> 67 ;
68 [label="entropy = 0.0\nsamples = 1\nvalue = [1, 0]"] ;
66 -> 68 ;
69 [label="entropy = 0.0\nsamples = 49\nvalue = [49, 0]"] ;
65 -> 69 ;
70 [label="X[8] <= 0.277\nentropy = 0.985\nsamples = 28\nvalue = [12, 16]"] ;
64 -> 70 ;
71 [label="X[6] <= -0.443\nentropy = 0.949\nsamples = 19\nvalue = [12, 7]"] ;
70 -> 71 ;
72 [label="entropy = 0.0\nsamples = 9\nvalue = [9, 0]"] ;
71 -> 72 ;
73 [label="X[35] <= -0.908\nentropy = 0.881\nsamples = 10\nvalue = [3, 7]"] ;
71 -> 73 ;
74 [label="entropy = 0.0\nsamples = 3\nvalue = [3, 0]"] ;
73 -> 74 ;
75 [label="entropy = 0.0\nsamples = 7\nvalue = [0, 7]"] ;
73 -> 75 ;
76 [label="entropy = 0.0\nsamples = 9\nvalue = [0, 9]"] ;
70 -> 76 ;
77 [label="X[18] <= 2.003\nentropy = 0.101\nsamples = 76\nvalue = [75, 1]"] ;
63 -> 77 ;
78 [label="entropy = 0.0\nsamples = 75\nvalue = [75, 0]"] ;
77 -> 78 ;
79 [label="entropy = 0.0\nsamples = 1\nvalue = [0, 1]"] ;
77 -> 79 ;
80 [label="X[7] <= 2.607\nentropy = 0.037\nsamples = 253\nvalue = [252, 1]"] ;
62 -> 80 ;
81 [label="entropy = 0.0\nsamples = 252\nvalue = [252, 0]"] ;
80 -> 81 ;
82 [label="entropy = 0.0\nsamples = 1\nvalue = [0, 1]"] ;
80 -> 82 ;
}